SVM-light Version V6.02
0 # kernel type
0 # kernel parameter -d 
1 # kernel parameter -g 
1 # kernel parameter -s 
1 # kernel parameter -r 
empty# kernel parameter -u 
2 # highest feature index 
200 # number of training documents 
43 # number of support vectors plus 1 
-2.8023864 # threshold b, each following line is a SV (starting with alpha*y)
-1 1:0.59205002 2:0.61213899 #
0.5 1:0.341858 2:0.493967 #
-1 1:0.51109397 2:0.53430998 #
0.5 1:0.433465 2:0.43555599 #
0.5 1:0.48529899 2:0.37905601 #
-1 1:0.51499599 2:0.56877297 #
0.5 1:0.38447899 2:0.47672901 #
0.5 1:0.326906 2:0.491418 #
-1 1:0.54374999 2:0.54954797 #
0.5 1:0.48221099 2:0.34077999 #
0.5 1:0.32778701 2:0.46630701 #
-1 1:0.51082498 2:0.58949101 #
0.5 1:0.46687999 2:0.33299401 #
0.5 1:0.27889401 2:0.475447 #
-1 1:0.64775401 2:0.51596099 #
0.5 1:0.392214 2:0.37032399 #
0.5 1:0.351612 2:0.40807 #
-1 1:0.61188501 2:0.55394399 #
0.5 1:0.39891499 2:0.35135099 #
0.5 1:0.31124899 2:0.433375 #
-1 1:0.58842802 2:0.58856201 #
0.5 1:0.336647 2:0.40460199 #
0.5 1:0.4569 2:0.25281799 #
-1 1:0.60886598 2:0.56930101 #
0.5 1:0.26543599 2:0.46786499 #
0.5 1:0.265605 2:0.460549 #
-1 1:0.59030801 2:0.596623 #
0.5 1:0.39468199 2:0.29874501 #
0.5 1:0.298971 2:0.41621199 #
-1 1:0.54129601 2:0.67439198 #
0.5 1:0.353358 2:0.31783101 #
0.5 1:0.44646099 2:0.195381 #
-1 1:0.67371899 2:0.52208298 #
0.5 1:0.32035899 2:0.34204799 #
0.5 1:0.27588901 2:0.37127301 #
0.5 1:0.21632101 2:0.411787 #
-1 1:0.69362301 2:0.52133 #
0.5 1:0.34251401 2:0.265315 #
0.5 1:0.38596699 2:0.21132299 #
-0.87995989011869824025779962539673 1:0.60890102 2:0.66123003 #
0.5 1:0.31588301 2:0.288697 #
0.37995989010232733562588691711426 1:0.29159299 2:0.31033599 #
